<?xml version="1.0"?>
<opencv_storage>
<cascade>
  <stageType>BOOST</stageType>
  <featureType>HAAR</featureType>
  <height>24</height>
  <width>24</width>
  <stageParams>
    <boostType>GAB</boostType>
    <minHitRate>9.9500000476837158e-01</minHitRate>
    <maxFalseAlarm>5.0000000000000000e-01</maxFalseAlarm>
    <weightTrimRate>9.4999999999999996e-01</weightTrimRate>
    <maxDepth>1</maxDepth>
    <maxWeakCount>100</maxWeakCount></stageParams>
  <featureParams>
    <maxCatCount>0</maxCatCount>
    <featSize>1</featSize>
    <mode>BASIC</mode></featureParams>
  <stageNum>4</stageNum>
  <stages>
    <!-- stage 0 -->
    <_>
      <maxWeakCount>2</maxWeakCount>
      <stageThreshold>3.7736035883426666e-02</stageThreshold>
      <weakClassifiers>
        <_>
          <internalNodes>
            0 -1 0 -5.0787599757313728e-03</internalNodes>
          <leafValues>
            1. -9.6078431606292725e-01</leafValues></_>
        <_>
          <internalNodes>
            0 -1 1 -3.0541743617504835e-03</internalNodes>
          <leafValues>
            1. -9.6226394176483154e-01</leafValues></_></weakClassifiers></_>
    <!-- stage 1 -->
    <_>
      <maxWeakCount>1</maxWeakCount>
      <stageThreshold>9.5876288414001465e-01</stageThreshold>
      <weakClassifiers>
        <_>
          <internalNodes>
            0 -1 3 -5.5568427778780460e-03</internalNodes>
          <leafValues>
            9.5876288414001465e-01 -1.</leafValues></_></weakClassifiers></_>
    <!-- stage 2 -->
    <_>
      <maxWeakCount>2</maxWeakCount>
      <stageThreshold>-1.8790863454341888e-02</stageThreshold>
      <weakClassifiers>
        <_>
          <internalNodes>
            0 -1 5 3.1771946698427200e-02</internalNodes>
          <leafValues>
            -9.5999997854232788e-01 9.7894734144210815e-01</leafValues></_>
        <_>
          <internalNodes>
            0 -1 2 -1.1286189779639244e-02</internalNodes>
          <leafValues>
            9.4120913743972778e-01 -1.</leafValues></_></weakClassifiers></_>
    <!-- stage 3 -->
    <_>
      <maxWeakCount>2</maxWeakCount>
      <stageThreshold>-9.0914650354534388e-04</stageThreshold>
      <weakClassifiers>
        <_>
          <internalNodes>
            0 -1 6 3.1236585229635239e-02</internalNodes>
          <leafValues>
            -9.2307692766189575e-01 1.</leafValues></_>
        <_>
          <internalNodes>
            0 -1 4 2.3145791143178940e-02</internalNodes>
          <leafValues>
            -1. 9.2216777801513672e-01</leafValues></_></weakClassifiers></_></stages>
  <features>
    <_>
      <rects>
        <_>
          0 2 3 6 -1.</_>
        <_>
          0 5 3 3 2.</_></rects>
      <tilted>0</tilted></_>
    <_>
      <rects>
        <_>
          0 3 4 3 -1.</_>
        <_>
          2 3 2 3 2.</_></rects>
      <tilted>0</tilted></_>
    <_>
      <rects>
        <_>
          0 17 4 5 -1.</_>
        <_>
          2 17 2 5 2.</_></rects>
      <tilted>0</tilted></_>
    <_>
      <rects>
        <_>
          3 22 8 2 -1.</_>
        <_>
          7 22 4 2 2.</_></rects>
      <tilted>0</tilted></_>
    <_>
      <rects>
        <_>
          14 16 10 8 -1.</_>
        <_>
          19 16 5 8 2.</_></rects>
      <tilted>0</tilted></_>
    <_>
      <rects>
        <_>
          16 17 8 7 -1.</_>
        <_>
          20 17 4 7 2.</_></rects>
      <tilted>0</tilted></_>
    <_>
      <rects>
        <_>
          16 18 8 5 -1.</_>
        <_>
          20 18 4 5 2.</_></rects>
      <tilted>0</tilted></_></features></cascade>
</opencv_storage>
